digraph Tree {
node [shape=box, style="filled, rounded", color="black", fontname=helvetica] ;
edge [fontname=helvetica] ;
0 [label="winter <= 0.5\ngini = 0.471\nsamples = 190\nvalue = [118, 72]\nclass =  ", fillcolor="#f5ceb2"] ;
1 [label="pressure <= 33.5\ngini = 0.471\nsamples = 87\nvalue = [33, 54]\nclass = 0", fillcolor="#b2d9f5"] ;
0 -> 1 [labeldistance=2.5, labelangle=45, headlabel="True"] ;
2 [label="pressure <= 17.5\ngini = 0.245\nsamples = 63\nvalue = [9, 54]\nclass = 0", fillcolor="#5aade9"] ;
1 -> 2 ;
3 [label="gini = 0.0\nsamples = 1\nvalue = [1, 0]\nclass =  ", fillcolor="#e58139"] ;
2 -> 3 ;
4 [label="rain <= 1013.5\ngini = 0.225\nsamples = 62\nvalue = [8, 54]\nclass = 0", fillcolor="#56ace9"] ;
2 -> 4 ;
5 [label="pressure <= 19.5\ngini = 0.15\nsamples = 49\nvalue = [4, 45]\nclass = 0", fillcolor="#4ba6e7"] ;
4 -> 5 ;
6 [label="rain <= 1010.5\ngini = 0.375\nsamples = 8\nvalue = [2, 6]\nclass = 0", fillcolor="#7bbeee"] ;
5 -> 6 ;
7 [label="gini = 0.0\nsamples = 1\nvalue = [1, 0]\nclass =  ", fillcolor="#e58139"] ;
6 -> 7 ;
8 [label="tempreature <= 46.0\ngini = 0.245\nsamples = 7\nvalue = [1, 6]\nclass = 0", fillcolor="#5aade9"] ;
6 -> 8 ;
9 [label="tempreature <= 35.5\ngini = 0.444\nsamples = 3\nvalue = [1, 2]\nclass = 0", fillcolor="#9ccef2"] ;
8 -> 9 ;
10 [label="gini = 0.0\nsamples = 2\nvalue = [0, 2]\nclass = 0", fillcolor="#399de5"] ;
9 -> 10 ;
11 [label="gini = 0.0\nsamples = 1\nvalue = [1, 0]\nclass =  ", fillcolor="#e58139"] ;
9 -> 11 ;
12 [label="gini = 0.0\nsamples = 4\nvalue = [0, 4]\nclass = 0", fillcolor="#399de5"] ;
8 -> 12 ;
13 [label="rain <= 1009.5\ngini = 0.093\nsamples = 41\nvalue = [2, 39]\nclass = 0", fillcolor="#43a2e6"] ;
5 -> 13 ;
14 [label="pressure <= 23.5\ngini = 0.375\nsamples = 4\nvalue = [1, 3]\nclass = 0", fillcolor="#7bbeee"] ;
13 -> 14 ;
15 [label="gini = 0.0\nsamples = 3\nvalue = [0, 3]\nclass = 0", fillcolor="#399de5"] ;
14 -> 15 ;
16 [label="gini = 0.0\nsamples = 1\nvalue = [1, 0]\nclass =  ", fillcolor="#e58139"] ;
14 -> 16 ;
17 [label="tempreature <= 59.5\ngini = 0.053\nsamples = 37\nvalue = [1, 36]\nclass = 0", fillcolor="#3ea0e6"] ;
13 -> 17 ;
18 [label="gini = 0.0\nsamples = 22\nvalue = [0, 22]\nclass = 0", fillcolor="#399de5"] ;
17 -> 18 ;
19 [label="tempreature <= 61.5\ngini = 0.124\nsamples = 15\nvalue = [1, 14]\nclass = 0", fillcolor="#47a4e7"] ;
17 -> 19 ;
20 [label="pressure <= 25.0\ngini = 0.444\nsamples = 3\nvalue = [1, 2]\nclass = 0", fillcolor="#9ccef2"] ;
19 -> 20 ;
21 [label="gini = 0.0\nsamples = 2\nvalue = [0, 2]\nclass = 0", fillcolor="#399de5"] ;
20 -> 21 ;
22 [label="gini = 0.0\nsamples = 1\nvalue = [1, 0]\nclass =  ", fillcolor="#e58139"] ;
20 -> 22 ;
23 [label="gini = 0.0\nsamples = 12\nvalue = [0, 12]\nclass = 0", fillcolor="#399de5"] ;
19 -> 23 ;
24 [label="pressure <= 28.5\ngini = 0.426\nsamples = 13\nvalue = [4, 9]\nclass = 0", fillcolor="#91c9f1"] ;
4 -> 24 ;
25 [label="pressure <= 27.5\ngini = 0.5\nsamples = 8\nvalue = [4, 4]\nclass =  ", fillcolor="#ffffff"] ;
24 -> 25 ;
26 [label="pressure <= 22.0\ngini = 0.444\nsamples = 6\nvalue = [2, 4]\nclass = 0", fillcolor="#9ccef2"] ;
25 -> 26 ;
27 [label="tempreature <= 40.0\ngini = 0.444\nsamples = 3\nvalue = [2, 1]\nclass =  ", fillcolor="#f2c09c"] ;
26 -> 27 ;
28 [label="gini = 0.0\nsamples = 1\nvalue = [1, 0]\nclass =  ", fillcolor="#e58139"] ;
27 -> 28 ;
29 [label="pressure <= 19.5\ngini = 0.5\nsamples = 2\nvalue = [1, 1]\nclass =  ", fillcolor="#ffffff"] ;
27 -> 29 ;
30 [label="gini = 0.0\nsamples = 1\nvalue = [0, 1]\nclass = 0", fillcolor="#399de5"] ;
29 -> 30 ;
31 [label="gini = 0.0\nsamples = 1\nvalue = [1, 0]\nclass =  ", fillcolor="#e58139"] ;
29 -> 31 ;
32 [label="gini = 0.0\nsamples = 3\nvalue = [0, 3]\nclass = 0", fillcolor="#399de5"] ;
26 -> 32 ;
33 [label="gini = 0.0\nsamples = 2\nvalue = [2, 0]\nclass =  ", fillcolor="#e58139"] ;
25 -> 33 ;
34 [label="gini = 0.0\nsamples = 5\nvalue = [0, 5]\nclass = 0", fillcolor="#399de5"] ;
24 -> 34 ;
35 [label="gini = 0.0\nsamples = 24\nvalue = [24, 0]\nclass =  ", fillcolor="#e58139"] ;
1 -> 35 ;
36 [label="pressure <= 20.5\ngini = 0.288\nsamples = 103\nvalue = [85, 18]\nclass =  ", fillcolor="#eb9c63"] ;
0 -> 36 [labeldistance=2.5, labelangle=-45, headlabel="False"] ;
37 [label="rain <= 1010.5\ngini = 0.059\nsamples = 66\nvalue = [64, 2]\nclass =  ", fillcolor="#e6853f"] ;
36 -> 37 ;
38 [label="tempreature <= 41.5\ngini = 0.208\nsamples = 17\nvalue = [15, 2]\nclass =  ", fillcolor="#e89253"] ;
37 -> 38 ;
39 [label="pressure <= 16.5\ngini = 0.124\nsamples = 15\nvalue = [14, 1]\nclass =  ", fillcolor="#e78a47"] ;
38 -> 39 ;
40 [label="pressure <= 15.5\ngini = 0.375\nsamples = 4\nvalue = [3, 1]\nclass =  ", fillcolor="#eeab7b"] ;
39 -> 40 ;
41 [label="gini = 0.0\nsamples = 3\nvalue = [3, 0]\nclass =  ", fillcolor="#e58139"] ;
40 -> 41 ;
42 [label="gini = 0.0\nsamples = 1\nvalue = [0, 1]\nclass = 0", fillcolor="#399de5"] ;
40 -> 42 ;
43 [label="gini = 0.0\nsamples = 11\nvalue = [11, 0]\nclass =  ", fillcolor="#e58139"] ;
39 -> 43 ;
44 [label="pressure <= 10.465\ngini = 0.5\nsamples = 2\nvalue = [1, 1]\nclass =  ", fillcolor="#ffffff"] ;
38 -> 44 ;
45 [label="gini = 0.0\nsamples = 1\nvalue = [1, 0]\nclass =  ", fillcolor="#e58139"] ;
44 -> 45 ;
46 [label="gini = 0.0\nsamples = 1\nvalue = [0, 1]\nclass = 0", fillcolor="#399de5"] ;
44 -> 46 ;
47 [label="gini = 0.0\nsamples = 49\nvalue = [49, 0]\nclass =  ", fillcolor="#e58139"] ;
37 -> 47 ;
48 [label="rain <= 1012.5\ngini = 0.491\nsamples = 37\nvalue = [21, 16]\nclass =  ", fillcolor="#f9e1d0"] ;
36 -> 48 ;
49 [label="tempreature <= 45.0\ngini = 0.298\nsamples = 22\nvalue = [18, 4]\nclass =  ", fillcolor="#eb9d65"] ;
48 -> 49 ;
50 [label="gini = 0.0\nsamples = 1\nvalue = [0, 1]\nclass = 0", fillcolor="#399de5"] ;
49 -> 50 ;
51 [label="tempreature <= 74.5\ngini = 0.245\nsamples = 21\nvalue = [18, 3]\nclass =  ", fillcolor="#e9965a"] ;
49 -> 51 ;
52 [label="rain <= 1009.5\ngini = 0.188\nsamples = 19\nvalue = [17, 2]\nclass =  ", fillcolor="#e89050"] ;
51 -> 52 ;
53 [label="gini = 0.0\nsamples = 7\nvalue = [7, 0]\nclass =  ", fillcolor="#e58139"] ;
52 -> 53 ;
54 [label="tempreature <= 66.0\ngini = 0.278\nsamples = 12\nvalue = [10, 2]\nclass =  ", fillcolor="#ea9a61"] ;
52 -> 54 ;
55 [label="pressure <= 28.5\ngini = 0.18\nsamples = 10\nvalue = [9, 1]\nclass =  ", fillcolor="#e88f4f"] ;
54 -> 55 ;
56 [label="gini = 0.0\nsamples = 6\nvalue = [6, 0]\nclass =  ", fillcolor="#e58139"] ;
55 -> 56 ;
57 [label="pressure <= 29.5\ngini = 0.375\nsamples = 4\nvalue = [3, 1]\nclass =  ", fillcolor="#eeab7b"] ;
55 -> 57 ;
58 [label="tempreature <= 62.0\ngini = 0.5\nsamples = 2\nvalue = [1, 1]\nclass =  ", fillcolor="#ffffff"] ;
57 -> 58 ;
59 [label="gini = 0.0\nsamples = 1\nvalue = [0, 1]\nclass = 0", fillcolor="#399de5"] ;
58 -> 59 ;
60 [label="gini = 0.0\nsamples = 1\nvalue = [1, 0]\nclass =  ", fillcolor="#e58139"] ;
58 -> 60 ;
61 [label="gini = 0.0\nsamples = 2\nvalue = [2, 0]\nclass =  ", fillcolor="#e58139"] ;
57 -> 61 ;
62 [label="pressure <= 28.5\ngini = 0.5\nsamples = 2\nvalue = [1, 1]\nclass =  ", fillcolor="#ffffff"] ;
54 -> 62 ;
63 [label="gini = 0.0\nsamples = 1\nvalue = [0, 1]\nclass = 0", fillcolor="#399de5"] ;
62 -> 63 ;
64 [label="gini = 0.0\nsamples = 1\nvalue = [1, 0]\nclass =  ", fillcolor="#e58139"] ;
62 -> 64 ;
65 [label="rain <= 1011.0\ngini = 0.5\nsamples = 2\nvalue = [1, 1]\nclass =  ", fillcolor="#ffffff"] ;
51 -> 65 ;
66 [label="gini = 0.0\nsamples = 1\nvalue = [0, 1]\nclass = 0", fillcolor="#399de5"] ;
65 -> 66 ;
67 [label="gini = 0.0\nsamples = 1\nvalue = [1, 0]\nclass =  ", fillcolor="#e58139"] ;
65 -> 67 ;
68 [label="tempreature <= 31.5\ngini = 0.32\nsamples = 15\nvalue = [3, 12]\nclass = 0", fillcolor="#6ab6ec"] ;
48 -> 68 ;
69 [label="gini = 0.0\nsamples = 1\nvalue = [1, 0]\nclass =  ", fillcolor="#e58139"] ;
68 -> 69 ;
70 [label="pressure <= 22.0\ngini = 0.245\nsamples = 14\nvalue = [2, 12]\nclass = 0", fillcolor="#5aade9"] ;
68 -> 70 ;
71 [label="tempreature <= 55.5\ngini = 0.5\nsamples = 4\nvalue = [2, 2]\nclass =  ", fillcolor="#ffffff"] ;
70 -> 71 ;
72 [label="gini = 0.0\nsamples = 2\nvalue = [2, 0]\nclass =  ", fillcolor="#e58139"] ;
71 -> 72 ;
73 [label="gini = 0.0\nsamples = 2\nvalue = [0, 2]\nclass = 0", fillcolor="#399de5"] ;
71 -> 73 ;
74 [label="gini = 0.0\nsamples = 10\nvalue = [0, 10]\nclass = 0", fillcolor="#399de5"] ;
70 -> 74 ;
}