digraph Tree {
node [shape=box, style="filled, rounded", color="black", fontname=helvetica] ;
edge [fontname=helvetica] ;
0 [label="pressure <= 21.5\ngini = 0.496\nsamples = 190\nvalue = [87, 103]\nclass = 0", fillcolor="#e0f0fb"] ;
1 [label="rain <= 0.5\ngini = 0.325\nsamples = 93\nvalue = [19, 74]\nclass = 0", fillcolor="#6cb6ec"] ;
0 -> 1 [labeldistance=2.5, labelangle=45, headlabel="True"] ;
2 [label="pressure <= 18.5\ngini = 0.126\nsamples = 74\nvalue = [5, 69]\nclass = 0", fillcolor="#47a4e7"] ;
1 -> 2 ;
3 [label="tempreature <= 58.0\ngini = 0.042\nsamples = 47\nvalue = [1, 46]\nclass = 0", fillcolor="#3d9fe6"] ;
2 -> 3 ;
4 [label="gini = 0.0\nsamples = 43\nvalue = [0, 43]\nclass = 0", fillcolor="#399de5"] ;
3 -> 4 ;
5 [label="pressure <= 9.465\ngini = 0.375\nsamples = 4\nvalue = [1, 3]\nclass = 0", fillcolor="#7bbeee"] ;
3 -> 5 ;
6 [label="gini = 0.0\nsamples = 3\nvalue = [0, 3]\nclass = 0", fillcolor="#399de5"] ;
5 -> 6 ;
7 [label="gini = 0.0\nsamples = 1\nvalue = [1, 0]\nclass =  ", fillcolor="#e58139"] ;
5 -> 7 ;
8 [label="tempreature <= 40.5\ngini = 0.252\nsamples = 27\nvalue = [4, 23]\nclass = 0", fillcolor="#5baeea"] ;
2 -> 8 ;
9 [label="summer <= 1009.5\ngini = 0.444\nsamples = 9\nvalue = [3, 6]\nclass = 0", fillcolor="#9ccef2"] ;
8 -> 9 ;
10 [label="gini = 0.0\nsamples = 3\nvalue = [0, 3]\nclass = 0", fillcolor="#399de5"] ;
9 -> 10 ;
11 [label="summer <= 1011.0\ngini = 0.5\nsamples = 6\nvalue = [3, 3]\nclass =  ", fillcolor="#ffffff"] ;
9 -> 11 ;
12 [label="gini = 0.0\nsamples = 1\nvalue = [1, 0]\nclass =  ", fillcolor="#e58139"] ;
11 -> 12 ;
13 [label="summer <= 1013.5\ngini = 0.48\nsamples = 5\nvalue = [2, 3]\nclass = 0", fillcolor="#bddef6"] ;
11 -> 13 ;
14 [label="tempreature <= 38.0\ngini = 0.375\nsamples = 4\nvalue = [1, 3]\nclass = 0", fillcolor="#7bbeee"] ;
13 -> 14 ;
15 [label="gini = 0.0\nsamples = 3\nvalue = [0, 3]\nclass = 0", fillcolor="#399de5"] ;
14 -> 15 ;
16 [label="gini = 0.0\nsamples = 1\nvalue = [1, 0]\nclass =  ", fillcolor="#e58139"] ;
14 -> 16 ;
17 [label="gini = 0.0\nsamples = 1\nvalue = [1, 0]\nclass =  ", fillcolor="#e58139"] ;
13 -> 17 ;
18 [label="tempreature <= 57.0\ngini = 0.105\nsamples = 18\nvalue = [1, 17]\nclass = 0", fillcolor="#45a3e7"] ;
8 -> 18 ;
19 [label="gini = 0.0\nsamples = 10\nvalue = [0, 10]\nclass = 0", fillcolor="#399de5"] ;
18 -> 19 ;
20 [label="tempreature <= 59.5\ngini = 0.219\nsamples = 8\nvalue = [1, 7]\nclass = 0", fillcolor="#55abe9"] ;
18 -> 20 ;
21 [label="pressure <= 19.5\ngini = 0.375\nsamples = 4\nvalue = [1, 3]\nclass = 0", fillcolor="#7bbeee"] ;
20 -> 21 ;
22 [label="gini = 0.0\nsamples = 2\nvalue = [0, 2]\nclass = 0", fillcolor="#399de5"] ;
21 -> 22 ;
23 [label="gini = 0.5\nsamples = 2\nvalue = [1, 1]\nclass =  ", fillcolor="#ffffff"] ;
21 -> 23 ;
24 [label="gini = 0.0\nsamples = 4\nvalue = [0, 4]\nclass = 0", fillcolor="#399de5"] ;
20 -> 24 ;
25 [label="tempreature <= 61.0\ngini = 0.388\nsamples = 19\nvalue = [14, 5]\nclass =  ", fillcolor="#eeae80"] ;
1 -> 25 ;
26 [label="tempreature <= 32.5\ngini = 0.486\nsamples = 12\nvalue = [7, 5]\nclass =  ", fillcolor="#f8dbc6"] ;
25 -> 26 ;
27 [label="gini = 0.0\nsamples = 5\nvalue = [5, 0]\nclass =  ", fillcolor="#e58139"] ;
26 -> 27 ;
28 [label="pressure <= 20.0\ngini = 0.408\nsamples = 7\nvalue = [2, 5]\nclass = 0", fillcolor="#88c4ef"] ;
26 -> 28 ;
29 [label="tempreature <= 43.0\ngini = 0.5\nsamples = 4\nvalue = [2, 2]\nclass =  ", fillcolor="#ffffff"] ;
28 -> 29 ;
30 [label="gini = 0.0\nsamples = 2\nvalue = [0, 2]\nclass = 0", fillcolor="#399de5"] ;
29 -> 30 ;
31 [label="gini = 0.0\nsamples = 2\nvalue = [2, 0]\nclass =  ", fillcolor="#e58139"] ;
29 -> 31 ;
32 [label="gini = 0.0\nsamples = 3\nvalue = [0, 3]\nclass = 0", fillcolor="#399de5"] ;
28 -> 32 ;
33 [label="gini = 0.0\nsamples = 7\nvalue = [7, 0]\nclass =  ", fillcolor="#e58139"] ;
25 -> 33 ;
34 [label="summer <= 1010.5\ngini = 0.419\nsamples = 97\nvalue = [68, 29]\nclass =  ", fillcolor="#f0b78d"] ;
0 -> 34 [labeldistance=2.5, labelangle=-45, headlabel="False"] ;
35 [label="rain <= 0.5\ngini = 0.469\nsamples = 24\nvalue = [9, 15]\nclass = 0", fillcolor="#b0d8f5"] ;
34 -> 35 ;
36 [label="pressure <= 24.5\ngini = 0.133\nsamples = 14\nvalue = [1, 13]\nclass = 0", fillcolor="#48a5e7"] ;
35 -> 36 ;
37 [label="pressure <= 23.0\ngini = 0.444\nsamples = 3\nvalue = [1, 2]\nclass = 0", fillcolor="#9ccef2"] ;
36 -> 37 ;
38 [label="gini = 0.0\nsamples = 2\nvalue = [0, 2]\nclass = 0", fillcolor="#399de5"] ;
37 -> 38 ;
39 [label="gini = 0.0\nsamples = 1\nvalue = [1, 0]\nclass =  ", fillcolor="#e58139"] ;
37 -> 39 ;
40 [label="gini = 0.0\nsamples = 11\nvalue = [0, 11]\nclass = 0", fillcolor="#399de5"] ;
36 -> 40 ;
41 [label="tempreature <= 64.0\ngini = 0.32\nsamples = 10\nvalue = [8, 2]\nclass =  ", fillcolor="#eca06a"] ;
35 -> 41 ;
42 [label="gini = 0.0\nsamples = 6\nvalue = [6, 0]\nclass =  ", fillcolor="#e58139"] ;
41 -> 42 ;
43 [label="pressure <= 28.0\ngini = 0.5\nsamples = 4\nvalue = [2, 2]\nclass =  ", fillcolor="#ffffff"] ;
41 -> 43 ;
44 [label="pressure <= 24.5\ngini = 0.444\nsamples = 3\nvalue = [1, 2]\nclass = 0", fillcolor="#9ccef2"] ;
43 -> 44 ;
45 [label="gini = 0.5\nsamples = 2\nvalue = [1, 1]\nclass =  ", fillcolor="#ffffff"] ;
44 -> 45 ;
46 [label="gini = 0.0\nsamples = 1\nvalue = [0, 1]\nclass = 0", fillcolor="#399de5"] ;
44 -> 46 ;
47 [label="gini = 0.0\nsamples = 1\nvalue = [1, 0]\nclass =  ", fillcolor="#e58139"] ;
43 -> 47 ;
48 [label="summer <= 1014.5\ngini = 0.31\nsamples = 73\nvalue = [59, 14]\nclass =  ", fillcolor="#eb9f68"] ;
34 -> 48 ;
49 [label="pressure <= 23.5\ngini = 0.216\nsamples = 65\nvalue = [57, 8]\nclass =  ", fillcolor="#e99355"] ;
48 -> 49 ;
50 [label="pressure <= 22.5\ngini = 0.48\nsamples = 5\nvalue = [3, 2]\nclass =  ", fillcolor="#f6d5bd"] ;
49 -> 50 ;
51 [label="gini = 0.0\nsamples = 2\nvalue = [2, 0]\nclass =  ", fillcolor="#e58139"] ;
50 -> 51 ;
52 [label="tempreature <= 30.5\ngini = 0.444\nsamples = 3\nvalue = [1, 2]\nclass = 0", fillcolor="#9ccef2"] ;
50 -> 52 ;
53 [label="gini = 0.0\nsamples = 1\nvalue = [1, 0]\nclass =  ", fillcolor="#e58139"] ;
52 -> 53 ;
54 [label="gini = 0.0\nsamples = 2\nvalue = [0, 2]\nclass = 0", fillcolor="#399de5"] ;
52 -> 54 ;
55 [label="tempreature <= 59.5\ngini = 0.18\nsamples = 60\nvalue = [54, 6]\nclass =  ", fillcolor="#e88f4f"] ;
49 -> 55 ;
56 [label="summer <= 1013.5\ngini = 0.12\nsamples = 47\nvalue = [44, 3]\nclass =  ", fillcolor="#e78a46"] ;
55 -> 56 ;
57 [label="gini = 0.0\nsamples = 32\nvalue = [32, 0]\nclass =  ", fillcolor="#e58139"] ;
56 -> 57 ;
58 [label="tempreature <= 47.5\ngini = 0.32\nsamples = 15\nvalue = [12, 3]\nclass =  ", fillcolor="#eca06a"] ;
56 -> 58 ;
59 [label="gini = 0.0\nsamples = 2\nvalue = [0, 2]\nclass = 0", fillcolor="#399de5"] ;
58 -> 59 ;
60 [label="tempreature <= 57.5\ngini = 0.142\nsamples = 13\nvalue = [12, 1]\nclass =  ", fillcolor="#e78c49"] ;
58 -> 60 ;
61 [label="gini = 0.0\nsamples = 10\nvalue = [10, 0]\nclass =  ", fillcolor="#e58139"] ;
60 -> 61 ;
62 [label="pressure <= 28.0\ngini = 0.444\nsamples = 3\nvalue = [2, 1]\nclass =  ", fillcolor="#f2c09c"] ;
60 -> 62 ;
63 [label="gini = 0.0\nsamples = 1\nvalue = [0, 1]\nclass = 0", fillcolor="#399de5"] ;
62 -> 63 ;
64 [label="gini = 0.0\nsamples = 2\nvalue = [2, 0]\nclass =  ", fillcolor="#e58139"] ;
62 -> 64 ;
65 [label="summer <= 1011.5\ngini = 0.355\nsamples = 13\nvalue = [10, 3]\nclass =  ", fillcolor="#eda774"] ;
55 -> 65 ;
66 [label="pressure <= 27.0\ngini = 0.5\nsamples = 6\nvalue = [3, 3]\nclass =  ", fillcolor="#ffffff"] ;
65 -> 66 ;
67 [label="gini = 0.0\nsamples = 1\nvalue = [1, 0]\nclass =  ", fillcolor="#e58139"] ;
66 -> 67 ;
68 [label="tempreature <= 65.5\ngini = 0.48\nsamples = 5\nvalue = [2, 3]\nclass = 0", fillcolor="#bddef6"] ;
66 -> 68 ;
69 [label="rain <= 0.5\ngini = 0.375\nsamples = 4\nvalue = [1, 3]\nclass = 0", fillcolor="#7bbeee"] ;
68 -> 69 ;
70 [label="gini = 0.0\nsamples = 2\nvalue = [0, 2]\nclass = 0", fillcolor="#399de5"] ;
69 -> 70 ;
71 [label="tempreature <= 62.0\ngini = 0.5\nsamples = 2\nvalue = [1, 1]\nclass =  ", fillcolor="#ffffff"] ;
69 -> 71 ;
72 [label="gini = 0.0\nsamples = 1\nvalue = [0, 1]\nclass = 0", fillcolor="#399de5"] ;
71 -> 72 ;
73 [label="gini = 0.0\nsamples = 1\nvalue = [1, 0]\nclass =  ", fillcolor="#e58139"] ;
71 -> 73 ;
74 [label="gini = 0.0\nsamples = 1\nvalue = [1, 0]\nclass =  ", fillcolor="#e58139"] ;
68 -> 74 ;
75 [label="gini = 0.0\nsamples = 7\nvalue = [7, 0]\nclass =  ", fillcolor="#e58139"] ;
65 -> 75 ;
76 [label="rain <= 0.5\ngini = 0.375\nsamples = 8\nvalue = [2, 6]\nclass = 0", fillcolor="#7bbeee"] ;
48 -> 76 ;
77 [label="gini = 0.0\nsamples = 2\nvalue = [2, 0]\nclass =  ", fillcolor="#e58139"] ;
76 -> 77 ;
78 [label="gini = 0.0\nsamples = 6\nvalue = [0, 6]\nclass = 0", fillcolor="#399de5"] ;
76 -> 78 ;
}